{
  "weights_input_hidden": [
    [
      -1.3619880105412359,
      -1.4257764193227027,
      -2.2475097843267,
      -0.25877775108695267,
      2.8162602004060675,
      2.6034351038544377,
      -0.8093344183575215,
      -0.8061761191797019,
      0.029919863184312428,
      1.5069078189269942
    ],
    [
      -2.307792576195561,
      -0.6742182238425902,
      0.0698699609844799,
      0.3450813523412418,
      0.1863225608105723,
      -1.2968479999768585,
      -2.2185971983637978,
      2.091562770999166,
      1.8559500775226738,
      -2.1756285982788217
    ],
    [
      -1.071912876435104,
      -0.3317354779071349,
      1.7371361500766755,
      -2.1061111953171774,
      0.8130298584582734,
      0.45986747141535267,
      1.1651571499763362,
      -2.029593516801561,
      1.1800709773851936,
      1.8663745118419979
    ],
    [
      -1.716222887322044,
      0.398880143125631,
      0.5680584975307257,
      2.1414035861831406,
      -0.16889444917566274,
      0.7989746081689747,
      1.4545591616746696,
      2.127346355558559,
      1.2552579878073815,
      -1.5063193311306662
    ],
    [
      1.1727989131503267,
      -0.19346438261925725,
      -1.0740154275433926,
      1.4840545806981,
      -0.1710927337549866,
      -1.2745480767166713,
      -1.6149729169245,
      -1.101272375214592,
      1.2138818237613558,
      2.4485917533503185
    ],
    [
      -0.2701698981689548,
      -0.34283984056513755,
      1.9819343389668176,
      2.0206562421381533,
      -2.0569844693094916,
      1.7579191870077022,
      -1.563729766421183,
      -2.160930739606925,
      2.3821251750357293,
      -0.7522775242800395
    ],
    [
      0.5418790592030617,
      -0.3441190294508353,
      -1.7994019716152998,
      1.590855940533075,
      1.8322361855568154,
      -2.3621904326996814,
      0.7458470011210926,
      -0.9443624366560709,
      1.1248413174524634,
      -0.6667097790839456
    ],
    [
      0.6092865818399587,
      2.026802281974865,
      1.8434982832433493,
      -2.1973245082031743,
      0.7602507777102812,
      -1.0255293951396904,
      -2.5544559711058197,
      0.8801205547579083,
      -2.4329881842820056,
      0.4996247283901528
    ],
    [
      1.4614139604535554,
      0.1436114140624931,
      -0.4494798640090655,
      -2.0286276514288133,
      -2.3354934447613247,
      0.8581697598557223,
      1.5768760295213167,
      -1.4630553126173924,
      0.9455875720125697,
      -1.2720846632502503
    ],
    [
      -2.2013667712576614,
      0.855615654934314,
      -1.8396413002141847,
      -0.5947157166806948,
      -0.8958064611261167,
      0.6140339417696561,
      2.4031902165856778,
      1.8116491290672705,
      0.6232537294572714,
      1.15227068305905
    ],
    [
      -2.4845079946101745,
      2.409314691905538,
      0.9521278368472827,
      1.7123356186114358,
      -0.26453866021733885,
      -1.6374106964863484,
      0.8520836776904884,
      -1.8891077886059189,
      -1.6688528535616876,
      -0.7228678429486519
    ],
    [
      1.2865639808626583,
      -2.1254819731993844,
      0.4257769441151763,
      1.0653342526031229,
      -2.7552874579795748,
      -0.43934589645311606,
      1.0945536370197935,
      1.5203637855348997,
      -2.285281418518805,
      1.6870166434131555
    ],
    [
      -1.2441600696381947,
      -2.4475518994348033,
      2.6512457417988933,
      0.6112563387773863,
      1.93208065149851,
      1.2275773958455383,
      1.6215101114910289,
      -0.8677007118779808,
      -1.3721547485777033,
      -1.0282622357975093
    ],
    [
      2.156138001121277,
      1.5196806697317224,
      -1.1330049556581756,
      -0.4345157134351265,
      0.15686438176167194,
      1.5270679111255328,
      -1.3578661674662948,
      -0.3553014119681528,
      1.0208027705903258,
      -2.288307802475475
    ],
    [
      0.3409343453897606,
      -2.036627787649366,
      0.3118319505671655,
      0.5917503483201546,
      -0.2997135168114681,
      2.7811332121953196,
      -1.6642987382410066,
      0.8313581380283531,
      -0.9874880759852112,
      0.13171664175293807
    ],
    [
      0.8231722675662195,
      -1.8893408729724301,
      1.1431887311865825,
      -2.3921176123102503,
      0.5226836535654062,
      -1.5459467066641661,
      0.4336612135746101,
      1.2659124622211604,
      1.8638900739224415,
      -2.4960299473190584
    ]
  ],
  "weights_hidden_output": [
    [
      -2.1207037059634293,
      -2.3859476502754746,
      -1.5724331607144928,
      -2.96824137097843,
      0.6570886125938932,
      -0.16516982368823419,
      0.12323228451360987,
      0.5675840222047911,
      1.5290031340936918,
      -2.975935452758259,
      -2.993861670816024,
      0.9736421076587453,
      -1.2545730801136723,
      1.9831978488841866,
      -0.155501023795638,
      1.2018548010617573
    ],
    [
      -1.873138570915899,
      -0.41602681078830916,
      -0.8202842534706537,
      -0.3813923900454262,
      -0.7947668127980406,
      -0.27149031035435944,
      -0.6021501841624375,
      2.4693039958559346,
      0.05248744870836213,
      0.7127120494765796,
      3.341945221293378,
      -2.872615891714227,
      -3.1583750234680443,
      1.1961489153916525,
      -2.7035978312061784,
      -1.8431280732478958
    ],
    [
      -3.6142098634497515,
      0.10788178962547852,
      1.2456551017555668,
      -0.7292424454369599,
      -2.104945690296985,
      2.143246236072134,
      -2.7110977852050446,
      1.6541469794746224,
      -1.0758338546191537,
      -2.9103075034824903,
      0.5647723066865071,
      -0.23350789477517117,
      2.777376260447446,
      -1.7278143339260075,
      -0.08176835603242892,
      1.002916550941658
    ],
    [
      -0.7734882583077081,
      0.6978458938756972,
      -2.8291197989392534,
      1.2404101300285546,
      0.8969849838561874,
      2.107820095555952,
      1.1400030899423605,
      -3.10678197916645,
      -2.4699445468868078,
      -0.9138098220100757,
      1.8660949371596502,
      0.7061857112084339,
      0.5699144232009021,
      -0.9181550467444368,
      0.3112998032756987,
      -3.0986647578927196
    ],
    [
      2.9254922556244725,
      0.667579528561808,
      0.08895938349751478,
      -1.1720032696012626,
      -0.9473019095914562,
      -2.64291074553599,
      1.6377622100514928,
      0.5910895129266369,
      -2.7169730160642147,
      -1.4523698552210949,
      -0.5293695380122945,
      -3.880184641811902,
      2.149885253034789,
      -0.4775983697286273,
      -0.635096911928618,
      0.6777147869983937
    ],
    [
      2.3942723646738044,
      -1.0321685203445767,
      -0.37756647320206277,
      -0.6420834066056705,
      -2.272888970645125,
      1.8536001154527364,
      -3.351017823220345,
      -2.185338322324985,
      0.4766731179256916,
      -0.0033238384594421314,
      -2.1666447781836706,
      -1.2952903344765834,
      1.2650053830679617,
      1.2490691240515144,
      3.0233774087501395,
      -1.8834431089193089
    ],
    [
      -1.4708481237761373,
      -2.3527150253320177,
      0.43691031679526504,
      0.39626326070227047,
      -2.4813975705413855,
      -1.7191126159245547,
      0.14625357128589145,
      -3.52072009883999,
      1.2637720887907269,
      2.2395726095871926,
      0.836729455662546,
      0.8113136595640111,
      1.6358926243240013,
      -2.106708631404735,
      -2.3673155528374803,
      0.33671295550851493
    ],
    [
      -1.416813347366157,
      2.7783655331964074,
      -2.825803780728797,
      1.5606410874399312,
      -1.7735328252632117,
      -2.513409708859573,
      -1.3695345916415618,
      0.8498569599000313,
      -1.7614115116918925,
      1.4824746395173187,
      -2.4903791720878123,
      0.8545822999767523,
      -0.9411455244389669,
      -1.0148273905874186,
      0.38705529372920716,
      1.3288124223058
    ],
    [
      -0.7347534859812563,
      2.3262643076903027,
      0.5652164193117627,
      0.16027794011845667,
      0.3937096141268361,
      2.407006084420843,
      0.5211865296592515,
      -3.3365789981782625,
      0.7604994637028382,
      -0.009136470283814426,
      -2.2701172414816333,
      -3.495751670804985,
      -2.0005634903536365,
      0.2511074369833243,
      -1.4426753024330612,
      1.9017228460210511
    ],
    [
      1.49599645493721,
      -2.206037134589141,
      1.6405879472153968,
      -2.9877273494838317,
      2.4552326992232976,
      -1.2200834961018467,
      -1.0326787658672139,
      0.007432969584486133,
      -1.4688713386617156,
      0.8690457476746439,
      -0.594376616770865,
      1.3156511770263755,
      -0.8636841160887957,
      -3.0604805753801774,
      -0.052360754148420285,
      -2.9559547873762213
    ]
  ],
  "bias_hidden": [
    -0.3609932271536834,
    0.21456131223587138,
    0.1328037217536457,
    -0.19136279838127357,
    -0.13164532205781584,
    -0.24407002350931944,
    0.3101696499326116,
    0.48933150273962234,
    0.4021675212251084,
    0.09102648080418321,
    0.17232456150221434,
    0.5751905779963962,
    -0.2242339449446068,
    0.08326669554238293,
    -0.13301843490074236,
    0.4393693854749832
  ],
  "bias_output": [
    0.276523019971782,
    -0.1566971404421332,
    -1.2677637808469573,
    -1.3357245841702654,
    -0.5706043122859554,
    -0.9317780372050224,
    -0.5601925998819074,
    -0.8886437447782569,
    -1.8870048157709636,
    0.09862842285209991
  ]
}